<?xml version="1.0"?>
<opencv_storage>
<cascade>
  <stageType>BOOST</stageType>
  <featureType>HAAR</featureType>
  <height>20</height>
  <width>20</width>
  <stageParams>
    <boostType>GAB</boostType>
    <minHitRate>9.9500000476837158e-01</minHitRate>
    <maxFalseAlarm>5.0000000000000000e-01</maxFalseAlarm>
    <weightTrimRate>9.4999999999999996e-01</weightTrimRate>
    <maxDepth>1</maxDepth>
    <maxWeakCount>100</maxWeakCount></stageParams>
  <featureParams>
    <maxCatCount>0</maxCatCount>
    <featSize>1</featSize>
    <mode>BASIC</mode></featureParams>
  <stageNum>20</stageNum>
  <stages>
    <!-- stage 0 -->
    <_>
      <maxWeakCount>4</maxWeakCount>
      <stageThreshold>-1.4075618982315063e+00</stageThreshold>
      <weakClassifiers>
        <_>
          <internalNodes>
            0 -1 9 -3.0991953611373901e-01</internalNodes>
          <leafValues>
            8.9343243837356567e-01 -8.1954884529113770e-01</leafValues></_>
        <_>
          <internalNodes>
            0 -1 66 -1.3967369496822357e-01</internalNodes>
          <leafValues>
            7.1451461315155029e-01 -7.2909438610076904e-01</leafValues></_>
        <_>
          <internalNodes>
            0 -1 204 7.8408122062683105e-02</internalNodes>
          <leafValues>
            -4.8589569330215454e-01 7.8081381320953369e-01</leafValues></_>
        <_>
          <internalNodes>
            0 -1 11 -2.8084477409720421e-02</internalNodes>
          <leafValues>
            6.2697702646255493e-01 -5.1904046535491943e-01</leafValues></_></weakClassifiers></_>
    <!-- stage 1 -->
    <_>
      <maxWeakCount>3</maxWeakCount>
      <stageThreshold>-8.2248491048812866e-01</stageThreshold>
      <weakClassifiers>
        <_>
          <internalNodes>
            0 -1 0 -1.7351314425468445e-01</internalNodes>
          <leafValues>
            8.3905327320098877e-01 -8.7257617712020874e-01</leafValues></_>
        <_>
          <internalNodes>
            0 -1 20 -3.7416267395019531e-01</internalNodes>
          <leafValues>
            7.4533563852310181e-01 -5.8127111196517944e-01</leafValues></_>
        <_>
          <internalNodes>
            0 -1 95 2.3399269208312035e-02</internalNodes>
          <leafValues>
            -6.7538309097290039e-01 6.3136237859725952e-01</leafValues></_></weakClassifiers></_>
    <!-- stage 2 -->
    <_>
      <maxWeakCount>4</maxWeakCount>
      <stageThreshold>-1.4695943593978882e+00</stageThreshold>
      <weakClassifiers>
        <_>
          <internalNodes>
            0 -1 8 -3.1885612010955811e-01</internalNodes>
          <leafValues>
            7.7882355451583862e-01 -7.5280898809432983e-01</leafValues></_>
        <_>
          <internalNodes>
            0 -1 64 -8.4822952747344971e-02</internalNodes>
          <leafValues>
            6.2687015533447266e-01 -6.1990022659301758e-01</leafValues></_>
        <_>
          <internalNodes>
            0 -1 57 -8.6603797972202301e-02</internalNodes>
          <leafValues>
            4.8556101322174072e-01 -6.9637817144393921e-01</leafValues></_>
        <_>
          <internalNodes>
            0 -1 25 -1.1270018294453621e-02</internalNodes>
          <leafValues>
            4.6756684780120850e-01 -6.4727729558944702e-01</leafValues></_></weakClassifiers></_>
    <!-- stage 3 -->
    <_>
      <maxWeakCount>6</maxWeakCount>
      <stageThreshold>-9.2710143327713013e-01</stageThreshold>
      <weakClassifiers>
        <_>
          <internalNodes>
            0 -1 27 -7.0779480040073395e-02</internalNodes>
          <leafValues>
            7.1933960914611816e-01 -6.0335195064544678e-01</leafValues></_>
        <_>
          <internalNodes>
            0 -1 92 5.4707460105419159e-02</internalNodes>
          <leafValues>
            -6.7831152677536011e-01 5.4634267091751099e-01</leafValues></_>
        <_>
          <internalNodes>
            0 -1 45 -3.6201488971710205e-01</internalNodes>
          <leafValues>
            5.6436073780059814e-01 -6.0839891433715820e-01</leafValues></_>
        <_>
          <internalNodes>
            0 -1 18 -3.9697229862213135e-02</internalNodes>
          <leafValues>
            5.1912015676498413e-01 -6.8914663791656494e-01</leafValues></_>
        <_>
          <internalNodes>
            0 -1 193 -3.6543281748890877e-04</internalNodes>
          <leafValues>
            -8.3165860176086426e-01 2.3055456578731537e-01</leafValues></_>
        <_>
          <internalNodes>
            0 -1 56 -1.8678441643714905e-02</internalNodes>
          <leafValues>
            2.4879339337348938e-01 -7.1965551376342773e-01</leafValues></_></weakClassifiers></_>
    <!-- stage 4 -->
    <_>
      <maxWeakCount>6</maxWeakCount>
      <stageThreshold>-8.9271527528762817e-01</stageThreshold>
      <weakClassifiers>
        <_>
          <internalNodes>
            0 -1 62 -4.3220549821853638e-02</internalNodes>
          <leafValues>
            6.2116402387619019e-01 -7.3946362733840942e-01</leafValues></_>
        <_>
          <internalNodes>
            0 -1 24 -4.0189987421035767e-01</internalNodes>
          <leafValues>
            4.6978861093521118e-01 -5.6741327047348022e-01</leafValues></_>
        <_>
          <internalNodes>
            0 -1 113 2.5899827480316162e-02</internalNodes>
          <leafValues>
            -4.7728130221366882e-01 5.6581670045852661e-01</leafValues></_>
        <_>
          <internalNodes>
            0 -1 26 -1.5893615782260895e-02</internalNodes>
          <leafValues>
            3.8898527622222900e-01 -6.7196053266525269e-01</leafValues></_>
        <_>
          <internalNodes>
            0 -1 79 -9.3750774860382080e-02</internalNodes>
          <leafValues>
            3.2187113165855408e-01 -6.2052911520004272e-01</leafValues></_>
        <_>
          <internalNodes>
            0 -1 170 2.5378712452948093e-03</internalNodes>
          <leafValues>
            -7.6946085691452026e-01 2.0433041453361511e-01</leafValues></_></weakClassifiers></_>
    <!-- stage 5 -->
    <_>
      <maxWeakCount>5</maxWeakCount>
      <stageThreshold>-8.2762974500656128e-01</stageThreshold>
      <weakClassifiers>
        <_>
          <internalNodes>
            0 -1 4 -1.8317931890487671e-01</internalNodes>
          <leafValues>
            6.9400244951248169e-01 -4.4473007321357727e-01</leafValues></_>
        <_>
          <internalNodes>
            0 -1 157 -7.6326848939061165e-03</internalNodes>
          <leafValues>
            4.7636744379997253e-01 -6.9162452220916748e-01</leafValues></_>
        <_>
          <internalNodes>
            0 -1 144 1.2228379026055336e-02</internalNodes>
          <leafValues>
            -5.8102935552597046e-01 4.1289129853248596e-01</leafValues></_>
        <_>
          <internalNodes>
            0 -1 152 3.9639760507270694e-04</internalNodes>
          <leafValues>
            2.9041612148284912e-01 -8.7870603799819946e-01</leafValues></_>
        <_>
          <internalNodes>
            0 -1 29 -1.6066633164882660e-02</internalNodes>
          <leafValues>
            3.9899879693984985e-01 -5.3939437866210938e-01</leafValues></_></weakClassifiers></_>
    <!-- stage 6 -->
    <_>
      <maxWeakCount>8</maxWeakCount>
      <stageThreshold>-1.0142896175384521e+00</stageThreshold>
      <weakClassifiers>
        <_>
          <internalNodes>
            0 -1 180 -2.0984816364943981e-03</internalNodes>
          <leafValues>
            5.1196169853210449e-01 -8.7577641010284424e-01</leafValues></_>
        <_>
          <internalNodes>
            0 -1 58 -7.0062771439552307e-02</internalNodes>
          <leafValues>
            3.1679829955101013e-01 -6.7469638586044312e-01</leafValues></_>
        <_>
          <internalNodes>
            0 -1 43 -2.1837371587753296e-01</internalNodes>
          <leafValues>
            3.7572404742240906e-01 -6.0396039485931396e-01</leafValues></_>
        <_>
          <internalNodes>
            0 -1 1 -4.4161933660507202e-01</internalNodes>
          <leafValues>
            3.0908161401748657e-01 -5.9731703996658325e-01</leafValues></_>
        <_>
          <internalNodes>
            0 -1 178 2.6336105074733496e-03</internalNodes>
          <leafValues>
            -5.2476119995117188e-01 3.8233938813209534e-01</leafValues></_>
        <_>
          <internalNodes>
            0 -1 103 -1.2603811919689178e-03</internalNodes>
          <leafValues>
            3.0945301055908203e-01 -5.2706414461135864e-01</leafValues></_>
        <_>
          <internalNodes>
            0 -1 124 -1.6831550747156143e-03</internalNodes>
          <leafValues>
            -7.4353069067001343e-01 1.9248960912227631e-01</leafValues></_>
        <_>
          <internalNodes>
            0 -1 89 -1.5964116901159286e-03</internalNodes>
          <leafValues>
            2.2937376797199249e-01 -6.3331776857376099e-01</leafValues></_></weakClassifiers></_>
    <!-- stage 7 -->
    <_>
      <maxWeakCount>11</maxWeakCount>
      <stageThreshold>-9.5449298620223999e-01</stageThreshold>
      <weakClassifiers>
        <_>
          <internalNodes>
            0 -1 7 -3.1316082924604416e-02</internalNodes>
          <leafValues>
            5.0095599889755249e-01 -8.1250000000000000e-01</leafValues></_>
        <_>
          <internalNodes>
            0 -1 101 -1.2756432406604290e-02</internalNodes>
          <leafValues>
            5.2568435668945313e-01 -4.0300250053405762e-01</leafValues></_>
        <_>
          <internalNodes>
            0 -1 72 1.1543126404285431e-01</internalNodes>
          <leafValues>
            -4.7318187355995178e-01 4.1364452242851257e-01</leafValues></_>
        <_>
          <internalNodes>
            0 -1 206 8.8916178792715073e-03</internalNodes>
          <leafValues>
            -5.4717397689819336e-01 3.3757862448692322e-01</leafValues></_>
        <_>
          <internalNodes>
            0 -1 21 -7.2357416152954102e-02</internalNodes>
          <leafValues>
            4.9484363198280334e-01 -3.7660890817642212e-01</leafValues></_>
        <_>
          <internalNodes>
            0 -1 70 3.7230522138997912e-04</internalNodes>
          <leafValues>
            1.8116568028926849e-01 -7.3771554231643677e-01</leafValues></_>
        <_>
          <internalNodes>
            0 -1 169 -5.5317152291536331e-03</internalNodes>
          <leafValues>
            -9.0843194723129272e-01 1.1941584199666977e-01</leafValues></_>
        <_>
          <internalNodes>
            0 -1 116 -1.1248498049098998e-04</internalNodes>
          <leafValues>
            1.3705943524837494e-01 -8.2259947061538696e-01</leafValues></_>
        <_>
          <internalNodes>
            0 -1 97 -5.8361389674246311e-03</internalNodes>
          <leafValues>
            3.8241881132125854e-01 -4.1766983270645142e-01</leafValues></_>
        <_>
          <internalNodes>
            0 -1 86 -1.3139164447784424e-01</internalNodes>
          <leafValues>
            2.2040055692195892e-01 -5.9171944856643677e-01</leafValues></_>
        <_>
          <internalNodes>
            0 -1 142 9.5314742065966129e-04</internalNodes>
          <leafValues>
            -7.3525112867355347e-01 1.7274710536003113e-01</leafValues></_></weakClassifiers></_>
    <!-- stage 8 -->
    <_>
      <maxWeakCount>11</maxWeakCount>
      <stageThreshold>-1.1601662635803223e+00</stageThreshold>
      <weakClassifiers>
        <_>
          <internalNodes>
            0 -1 5 -1.5813267230987549e-01</internalNodes>
          <leafValues>
            6.8975067138671875e-01 -2.1487602591514587e-01</leafValues></_>
        <_>
          <internalNodes>
            0 -1 63 -5.3493574261665344e-02</internalNodes>
          <leafValues>
            3.9859282970428467e-01 -4.9619069695472717e-01</leafValues></_>
        <_>
          <internalNodes>
            0 -1 58 -9.8073288798332214e-02</internalNodes>
          <leafValues>
            3.6052525043487549e-01 -4.8845160007476807e-01</leafValues></_>
        <_>
          <internalNodes>
            0 -1 176 -5.4018301889300346e-03</internalNodes>
          <leafValues>
            -7.3066765069961548e-01 2.1944472193717957e-01</leafValues></_>
        <_>
          <internalNodes>
            0 -1 154 -9.7075355006381869e-04</internalNodes>
          <leafValues>
            2.2447279095649719e-01 -6.9930768013000488e-01</leafValues></_>
        <_>
          <internalNodes>
            0 -1 148 1.6251238994300365e-03</internalNodes>
          <leafValues>
            1.6378797590732574e-01 -7.3902070522308350e-01</leafValues></_>
        <_>
          <internalNodes>
            0 -1 165 -1.5222031623125076e-02</internalNodes>
          <leafValues>
            1.8400479853153229e-01 -6.8764543533325195e-01</leafValues></_>
        <_>
          <internalNodes>
            0 -1 16 -3.9123957976698875e-03</internalNodes>
          <leafValues>
            1.7640508711338043e-01 -6.6035372018814087e-01</leafValues></_>
        <_>
          <internalNodes>
            0 -1 153 -8.1882445374503732e-04</internalNodes>
          <leafValues>
            -8.6460554599761963e-01 1.1687878519296646e-01</leafValues></_>
        <_>
          <internalNodes>
            0 -1 183 -4.2709317058324814e-02</internalNodes>
          <leafValues>
            3.6445140838623047e-01 -3.4435182809829712e-01</leafValues></_>
        <_>
          <internalNodes>
            0 -1 28 -1.9279051572084427e-02</internalNodes>
          <leafValues>
            1.7035996913909912e-01 -6.4740157127380371e-01</leafValues></_></weakClassifiers></_>
    <!-- stage 9 -->
    <_>
      <maxWeakCount>11</maxWeakCount>
      <stageThreshold>-6.6091042757034302e-01</stageThreshold>
      <weakClassifiers>
        <_>
          <internalNodes>
            0 -1 198 1.0462998179718852e-03</internalNodes>
          <leafValues>
            5.1738238334655762e-01 -4.9122807383537292e-01</leafValues></_>
        <_>
          <internalNodes>
            0 -1 35 -9.6124738454818726e-02</internalNodes>
          <leafValues>
            3.0600076913833618e-01 -5.5263948440551758e-01</leafValues></_>
        <_>
          <internalNodes>
            0 -1 209 -1.3841215521097183e-02</internalNodes>
          <leafValues>
            3.2739388942718506e-01 -5.0221997499465942e-01</leafValues></_>
        <_>
          <internalNodes>
            0 -1 22 -9.1249443590641022e-02</internalNodes>
          <leafValues>
            3.2502591609954834e-01 -3.9694103598594666e-01</leafValues></_>
        <_>
          <internalNodes>
            0 -1 142 1.7292533302679658e-03</internalNodes>
          <leafValues>
            -6.0590386390686035e-01 1.9199790060520172e-01</leafValues></_>
        <_>
          <internalNodes>
            0 -1 147 -1.0683417320251465e-02</internalNodes>
          <leafValues>
            1.8433178961277008e-01 -6.5779143571853638e-01</leafValues></_>
        <_>
          <internalNodes>
            0 -1 6 -3.6549858748912811e-02</internalNodes>
          <leafValues>
            4.3378365039825439e-01 -3.2610711455345154e-01</leafValues></_>
        <_>
          <internalNodes>
            0 -1 172 1.0508338455110788e-03</internalNodes>
          <leafValues>
            1.4285624027252197e-01 -8.3053034543991089e-01</leafValues></_>
        <_>
          <internalNodes>
            0 -1 90 -4.0394831448793411e-03</internalNodes>
          <leafValues>
            -7.0219022035598755e-01 1.2787006795406342e-01</leafValues></_>
        <_>
          <internalNodes>
            0 -1 85 1.4193184906616807e-03</internalNodes>
          <leafValues>
            9.7679823637008667e-02 -8.5496354103088379e-01</leafValues></_>
        <_>
          <internalNodes>
            0 -1 123 -8.6172844748944044e-04</internalNodes>
          <leafValues>
            1.3867095112800598e-01 -5.9408825635910034e-01</leafValues></_></weakClassifiers></_>
    <!-- stage 10 -->
    <_>
      <maxWeakCount>11</maxWeakCount>
      <stageThreshold>-8.9424037933349609e-01</stageThreshold>
      <weakClassifiers>
        <_>
          <internalNodes>
            0 -1 77 -1.5326532535254955e-02</internalNodes>
          <leafValues>
            5.6849312782287598e-01 -3.1515151262283325e-01</leafValues></_>
        <_>
          <internalNodes>
            0 -1 87 -3.4849387593567371e-03</internalNodes>
          <leafValues>
            -7.5117999315261841e-01 2.5834450125694275e-01</leafValues></_>
        <_>
          <internalNodes>
            0 -1 151 -3.4830264747142792e-02</internalNodes>
          <leafValues>
            3.0372250080108643e-01 -4.6926695108413696e-01</leafValues></_>
        <_>
          <internalNodes>
            0 -1 14 -2.1875256299972534e-01</internalNodes>
          <leafValues>
            3.1377476453781128e-01 -4.3834456801414490e-01</leafValues></_>
        <_>
          <internalNodes>
            0 -1 15 -1.4402574300765991e-01</internalNodes>
          <leafValues>
            3.1540942192077637e-01 -4.1492846608161926e-01</leafValues></_>
        <_>
          <internalNodes>
            0 -1 36 -1.2389788171276450e-03</internalNodes>
          <leafValues>
            1.4368470013141632e-01 -7.5713068246841431e-01</leafValues></_>
        <_>
          <internalNodes>
            0 -1 44 -1.4757885038852692e-01</internalNodes>
          <leafValues>
            2.7213618159294128e-01 -4.3669795989990234e-01</leafValues></_>
        <_>
          <internalNodes>
            0 -1 189 6.5929244738072157e-04</internalNodes>
          <leafValues>
            1.1008975654840469e-01 -8.6627060174942017e-01</leafValues></_>
        <_>
          <internalNodes>
            0 -1 60 -5.0237188115715981e-03</internalNodes>
          <leafValues>
            3.0678784847259521e-01 -3.7118011713027954e-01</leafValues></_>
        <_>
          <internalNodes>
            0 -1 42 -4.0337252616882324e-01</internalNodes>
          <leafValues>
            2.6042199134826660e-01 -4.2499190568923950e-01</leafValues></_>
        <_>
          <internalNodes>
            0 -1 134 3.7947647797409445e-06</internalNodes>
          <leafValues>
            -8.3270174264907837e-01 1.2912850081920624e-01</leafValues></_></weakClassifiers></_>
    <!-- stage 11 -->
    <_>
      <maxWeakCount>19</maxWeakCount>
      <stageThreshold>-1.1105312108993530e+00</stageThreshold>
      <weakClassifiers>
        <_>
          <internalNodes>
            0 -1 99 -1.3743851333856583e-02</internalNodes>
          <leafValues>
            7.1840000152587891e-01 -9.4664372503757477e-02</leafValues></_>
        <_>
          <internalNodes>
            0 -1 80 -3.0897529795765877e-03</internalNodes>
          <leafValues>
            2.9095461964607239e-01 -5.0814050436019897e-01</leafValues></_>
        <_>
          <internalNodes>
            0 -1 191 -4.3051959946751595e-03</internalNodes>
          <leafValues>
            2.2087043523788452e-01 -5.5445480346679688e-01</leafValues></_>
        <_>
          <internalNodes>
            0 -1 20 -3.6394032835960388e-01</internalNodes>
          <leafValues>
            1.6411826014518738e-01 -6.6146612167358398e-01</leafValues></_>
        <_>
          <internalNodes>
            0 -1 200 -1.1078093666583300e-04</internalNodes>
          <leafValues>
            -8.1985002756118774e-01 1.1645577102899551e-01</leafValues></_>
        <_>
          <internalNodes>
            0 -1 67 -1.4073085039854050e-03</internalNodes>
          <leafValues>
            2.1156102418899536e-01 -5.1099270582199097e-01</leafValues></_>
        <_>
          <internalNodes>
            0 -1 208 -8.8222534395754337e-04</internalNodes>
          <leafValues>
            1.9723258912563324e-01 -5.3604948520660400e-01</leafValues></_>
        <_>
          <internalNodes>
            0 -1 83 -5.7141862809658051e-02</internalNodes>
          <leafValues>
            2.5338602066040039e-01 -3.9029324054718018e-01</leafValues></_>
        <_>
          <internalNodes>
            0 -1 213 1.7053290503099561e-03</internalNodes>
          <leafValues>
            -2.9875910282135010e-01 3.4821295738220215e-01</leafValues></_>
        <_>
          <internalNodes>
            0 -1 46 -6.1734393239021301e-03</internalNodes>
          <leafValues>
            4.3738895654678345e-01 -2.3401863873004913e-01</leafValues></_>
        <_>
          <internalNodes>
            0 -1 136 1.9693328067660332e-03</internalNodes>
          <leafValues>
            1.4588347077369690e-01 -5.5322080850601196e-01</leafValues></_>
        <_>
          <internalNodes>
            0 -1 174 -2.5069068651646376e-03</internalNodes>
          <leafValues>
            -6.9707632064819336e-01 1.2606984376907349e-01</leafValues></_>
        <_>
          <internalNodes>
            0 -1 73 1.9245411967858672e-03</internalNodes>
          <leafValues>
            1.8673954904079437e-01 -4.8508691787719727e-01</leafValues></_>
        <_>
          <internalNodes>
            0 -1 47 -2.5339557323604822e-03</internalNodes>
          <leafValues>
            1.4626905322074890e-01 -5.5357432365417480e-01</leafValues></_>
        <_>
          <internalNodes>
            0 -1 196 -2.8739036060869694e-03</internalNodes>
          <leafValues>
            5.7384359836578369e-01 -1.7155237495899200e-01</leafValues></_>
        <_>
          <internalNodes>
            0 -1 105 -1.0413022246211767e-03</internalNodes>
          <leafValues>
            3.6126667261123657e-01 -2.4370399117469788e-01</leafValues></_>
        <_>
          <internalNodes>
            0 -1 167 -5.7581276632845402e-04</internalNodes>
          <leafValues>
            -6.4930063486099243e-01 1.3453727960586548e-01</leafValues></_>
        <_>
          <internalNodes>
            0 -1 38 6.3228160142898560e-02</internalNodes>
          <leafValues>
            -1.5087108314037323e-01 7.3629277944564819e-01</leafValues></_>
        <_>
          <internalNodes>
            0 -1 150 -1.9414345733821392e-03</internalNodes>
          <leafValues>
            -7.4710035324096680e-01 1.5915045142173767e-01</leafValues></_></weakClassifiers></_>
    <!-- stage 12 -->
    <_>
      <maxWeakCount>17</maxWeakCount>
      <stageThreshold>-7.3605883121490479e-01</stageThreshold>
      <weakClassifiers>
        <_>
          <internalNodes>
            0 -1 37 -1.2867906689643860e-01</internalNodes>
          <leafValues>
            4.7378832101821899e-01 -4.3589743971824646e-01</leafValues></_>
        <_>
          <internalNodes>
            0 -1 101 -2.2553706541657448e-02</internalNodes>
          <leafValues>
            4.8000791668891907e-01 -2.7015796303749084e-01</leafValues></_>
        <_>
          <internalNodes>
            0 -1 3 -3.3264528959989548e-02</internalNodes>
          <leafValues>
            2.6217433810234070e-01 -4.1309314966201782e-01</leafValues></_>
        <_>
          <internalNodes>
            0 -1 192 -5.7312229182571173e-04</internalNodes>
          <leafValues>
            2.0535166561603546e-01 -5.1856386661529541e-01</leafValues></_>
        <_>
          <internalNodes>
            0 -1 143 -2.4904316524043679e-04</internalNodes>
          <leafValues>
            3.4265223145484924e-01 -3.0697563290596008e-01</leafValues></_>
        <_>
          <internalNodes>
            0 -1 125 -9.2040200252085924e-04</internalNodes>
          <leafValues>
            -6.1416500806808472e-01 1.1658922582864761e-01</leafValues></_>
        <_>
          <internalNodes>
            0 -1 128 -2.2286227904260159e-03</internalNodes>
          <leafValues>
            1.8750867247581482e-01 -5.6496590375900269e-01</leafValues></_>
        <_>
          <internalNodes>
            0 -1 155 6.6847004927694798e-04</internalNodes>
          <leafValues>
            -6.7970860004425049e-01 1.2123478949069977e-01</leafValues></_>
        <_>
          <internalNodes>
            0 -1 214 -3.3968448638916016e-02</internalNodes>
          <leafValues>
            -7.3149603605270386e-01 1.2408155202865601e-01</leafValues></_>
        <_>
          <internalNodes>
            0 -1 199 -2.3993165814317763e-04</internalNodes>
          <leafValues>
            8.7248995900154114e-02 -6.8466931581497192e-01</leafValues></_>
        <_>
          <internalNodes>
            0 -1 52 1.4873138570692390e-04</internalNodes>
          <leafValues>
            1.4592458307743073e-01 -6.0118871927261353e-01</leafValues></_>
        <_>
          <internalNodes>
            0 -1 139 -8.5108564235270023e-05</internalNodes>
          <leafValues>
            1.9679875671863556e-01 -4.4619283080101013e-01</leafValues></_>
        <_>
          <internalNodes>
            0 -1 49 -6.6536050289869308e-03</internalNodes>
          <leafValues>
            2.4016706645488739e-01 -3.7368810176849365e-01</leafValues></_>
        <_>
          <internalNodes>
            0 -1 182 8.1767980009317398e-04</internalNodes>
          <leafValues>
            1.5561892092227936e-01 -5.7596874237060547e-01</leafValues></_>
        <_>
          <internalNodes>
            0 -1 217 -1.3938029296696186e-03</internalNodes>
          <leafValues>
            -4.9402818083763123e-01 1.8453198671340942e-01</leafValues></_>
        <_>
          <internalNodes>
            0 -1 108 -3.2862676307559013e-03</internalNodes>
          <leafValues>
            -4.8751738667488098e-01 1.4515601098537445e-01</leafValues></_>
        <_>
          <internalNodes>
            0 -1 109 8.4433937445282936e-03</internalNodes>
          <leafValues>
            1.5773147344589233e-01 -5.7767862081527710e-01</leafValues></_></weakClassifiers></_>
    <!-- stage 13 -->
    <_>
      <maxWeakCount>19</maxWeakCount>
      <stageThreshold>-9.6694380044937134e-01</stageThreshold>
      <weakClassifiers>
        <_>
          <internalNodes>
            0 -1 122 -1.2375166639685631e-02</internalNodes>
          <leafValues>
            -2.3389831185340881e-01 5.0823271274566650e-01</leafValues></_>
        <_>
          <internalNodes>
            0 -1 202 4.1906954720616341e-04</internalNodes>
          <leafValues>
            -8.0192553997039795e-01 1.7148941755294800e-01</leafValues></_>
        <_>
          <internalNodes>
            0 -1 197 1.7635092139244080e-02</internalNodes>
          <leafValues>
            -2.8450995683670044e-01 4.1137114167213440e-01</leafValues></_>
        <_>
          <internalNodes>
            0 -1 41 -1.1769075691699982e-01</internalNodes>
          <leafValues>
            3.1936523318290710e-01 -3.3476868271827698e-01</leafValues></_>
        <_>
          <internalNodes>
            0 -1 91 -1.9837419968098402e-03</internalNodes>
          <leafValues>
            1.3082616031169891e-01 -7.3004490137100220e-01</leafValues></_>
        <_>
          <internalNodes>
            0 -1 212 3.4642750397324562e-03</internalNodes>
          <leafValues>
            -3.6246702075004578e-01 2.6848757266998291e-01</leafValues></_>
        <_>
          <internalNodes>
            0 -1 33 -3.5643572919070721e-03</internalNodes>
          <leafValues>
            -5.7442331314086914e-01 1.2038318812847137e-01</leafValues></_>
        <_>
          <internalNodes>
            0 -1 68 -1.1148020625114441e-02</internalNodes>
          <leafValues>
            1.8324500322341919e-01 -4.9718597531318665e-01</leafValues></_>
        <_>
          <internalNodes>
            0 -1 166 -8.7002702057361603e-03</internalNodes>
          <leafValues>
            2.2868464887142181e-01 -3.8378155231475830e-01</leafValues></_>
        <_>
          <internalNodes>
            0 -1 12 -2.3596910759806633e-02</internalNodes>
          <leafValues>
            4.3225798010826111e-01 -2.2352392971515656e-01</leafValues></_>
        <_>
          <internalNodes>
            0 -1 31 -3.3402276039123535e-01</internalNodes>
          <leafValues>
            2.0251937210559845e-01 -4.7119563817977905e-01</leafValues></_>
        <_>
          <internalNodes>
            0 -1 210 -4.3029143853345886e-05</internalNodes>
          <leafValues>
            1.9231827557086945e-01 -4.3819543719291687e-01</leafValues></_>
        <_>
          <internalNodes>
            0 -1 171 -5.0323527306318283e-02</internalNodes>
          <leafValues>
            -6.5002053976058960e-01 1.3349050283432007e-01</leafValues></_>
        <_>
          <internalNodes>
            0 -1 140 -5.8959925809176639e-05</internalNodes>
          <leafValues>
            1.9448405504226685e-01 -4.4350856542587280e-01</leafValues></_>
        <_>
          <internalNodes>
            0 -1 53 -1.8556965515017509e-03</internalNodes>
          <leafValues>
            2.1603833138942719e-01 -3.8689991831779480e-01</leafValues></_>
        <_>
          <internalNodes>
            0 -1 179 -3.0778157524764538e-03</internalNodes>
          <leafValues>
            1.0596625506877899e-01 -8.2535398006439209e-01</leafValues></_>
        <_>
          <internalNodes>
            0 -1 159 -1.9076457829214633e-04</internalNodes>
          <leafValues>
            1.9256855547428131e-01 -4.4960951805114746e-01</leafValues></_>
        <_>
          <internalNodes>
            0 -1 94 -5.6237193348351866e-05</internalNodes>
          <leafValues>
            -5.7819432020187378e-01 1.6918757557868958e-01</leafValues></_>
        <_>
          <internalNodes>
            0 -1 203 3.1703617423772812e-04</internalNodes>
          <leafValues>
            1.3914704322814941e-01 -5.1793390512466431e-01</leafValues></_></weakClassifiers></_>
    <!-- stage 14 -->
    <_>
      <maxWeakCount>16</maxWeakCount>
      <stageThreshold>-9.0211343765258789e-01</stageThreshold>
      <weakClassifiers>
        <_>
          <internalNodes>
            0 -1 107 -5.7927696034312248e-03</internalNodes>
          <leafValues>
            4.8560079932212830e-01 -4.7738692164421082e-01</leafValues></_>
        <_>
          <internalNodes>
            0 -1 82 -2.6196200400590897e-02</internalNodes>
          <leafValues>
            3.4343948960304260e-01 -4.7655171155929565e-01</leafValues></_>
        <_>
          <internalNodes>
            0 -1 8 -4.2567107081413269e-01</internalNodes>
          <leafValues>
            3.9102941751480103e-01 -4.4890239834785461e-01</leafValues></_>
        <_>
          <internalNodes>
            0 -1 188 1.8738938961178064e-03</internalNodes>
          <leafValues>
            2.2556470334529877e-01 -5.4836314916610718e-01</leafValues></_>
        <_>
          <internalNodes>
            0 -1 88 -1.4122526161372662e-02</internalNodes>
          <leafValues>
            2.0483925938606262e-01 -5.4739010334014893e-01</leafValues></_>
        <_>
          <internalNodes>
            0 -1 114 -1.2210521381348372e-03</internalNodes>
          <leafValues>
            3.8377496600151062e-01 -2.6064297556877136e-01</leafValues></_>
        <_>
          <internalNodes>
            0 -1 162 4.3384623713791370e-03</internalNodes>
          <leafValues>
            -4.9223506450653076e-01 2.0328487455844879e-01</leafValues></_>
        <_>
          <internalNodes>
            0 -1 48 -7.0822261273860931e-02</internalNodes>
          <leafValues>
            1.3878163695335388e-01 -6.2115132808685303e-01</leafValues></_>
        <_>
          <internalNodes>
            0 -1 156 -2.8468854725360870e-03</internalNodes>
          <leafValues>
            -6.3471084833145142e-01 1.4479283988475800e-01</leafValues></_>
        <_>
          <internalNodes>
            0 -1 81 -8.2995963748544455e-04</internalNodes>
          <leafValues>
            2.8839877247810364e-01 -3.6594071984291077e-01</leafValues></_>
        <_>
          <internalNodes>
            0 -1 175 -2.6110565522685647e-04</internalNodes>
          <leafValues>
            2.4612721800804138e-01 -3.3847159147262573e-01</leafValues></_>
        <_>
          <internalNodes>
            0 -1 2 -6.2995135784149170e-01</internalNodes>
          <leafValues>
            -8.4599292278289795e-01 1.2165478616952896e-01</leafValues></_>
        <_>
          <internalNodes>
            0 -1 129 -2.6343623176217079e-03</internalNodes>
          <leafValues>
            1.9299116730690002e-01 -4.7333157062530518e-01</leafValues></_>
        <_>
          <internalNodes>
            0 -1 207 -8.3045810461044312e-03</internalNodes>
          <leafValues>
            3.2207855582237244e-01 -2.9542610049247742e-01</leafValues></_>
        <_>
          <internalNodes>
            0 -1 59 -4.5510223135352135e-03</internalNodes>
          <leafValues>
            7.5321739912033081e-01 -1.1162277311086655e-01</leafValues></_>
        <_>
          <internalNodes>
            0 -1 55 -1.5669584274291992e-02</internalNodes>
          <leafValues>
            1.1940889805555344e-01 -8.9212006330490112e-01</leafValues></_></weakClassifiers></_>
    <!-- stage 15 -->
    <_>
      <maxWeakCount>14</maxWeakCount>
      <stageThreshold>-8.4758621454238892e-01</stageThreshold>
      <weakClassifiers>
        <_>
          <internalNodes>
            0 -1 121 -1.0659733787178993e-02</internalNodes>
          <leafValues>
            -3.0835735797882080e-01 5.8323633670806885e-01</leafValues></_>
        <_>
          <internalNodes>
            0 -1 102 -4.2620375752449036e-02</internalNodes>
          <leafValues>
            4.0100285410881042e-01 -2.5938242673873901e-01</leafValues></_>
        <_>
          <internalNodes>
            0 -1 40 -1.5936434268951416e-02</internalNodes>
          <leafValues>
            1.8025869131088257e-01 -5.6277924776077271e-01</leafValues></_>
        <_>
          <internalNodes>
            0 -1 96 -7.4644235428422689e-04</internalNodes>
          <leafValues>
            3.8352760672569275e-01 -2.5585940480232239e-01</leafValues></_>
        <_>
          <internalNodes>
            0 -1 187 -8.6463009938597679e-04</internalNodes>
          <leafValues>
            1.4276719093322754e-01 -6.9921189546585083e-01</leafValues></_>
        <_>
          <internalNodes>
            0 -1 168 -1.1175726540386677e-03</internalNodes>
          <leafValues>
            1.1684212088584900e-01 -6.4243113994598389e-01</leafValues></_>
        <_>
          <internalNodes>
            0 -1 146 -2.6828388217836618e-03</internalNodes>
          <leafValues>
            1.3511310517787933e-01 -7.9118424654006958e-01</leafValues></_>
        <_>
          <internalNodes>
            0 -1 74 -9.4754865858703852e-04</internalNodes>
          <leafValues>
            -7.0195561647415161e-01 1.3458311557769775e-01</leafValues></_>
        <_>
          <internalNodes>
            0 -1 211 -2.0573212532326579e-04</internalNodes>
          <leafValues>
            -5.4727977514266968e-01 1.8713276088237762e-01</leafValues></_>
        <_>
          <internalNodes>
            0 -1 181 -3.5903020761907101e-03</internalNodes>
          <leafValues>
            -6.2372958660125732e-01 1.7855490744113922e-01</leafValues></_>
        <_>
          <internalNodes>
            0 -1 205 -3.9124246686697006e-03</internalNodes>
          <leafValues>
            -7.0794188976287842e-01 1.1346746236085892e-01</leafValues></_>
        <_>
          <internalNodes>
            0 -1 149 -7.3246157262474298e-04</internalNodes>
          <leafValues>
            -6.7656868696212769e-01 1.2311656773090363e-01</leafValues></_>
        <_>
          <internalNodes>
            0 -1 51 -4.4645611196756363e-03</internalNodes>
          <leafValues>
            7.1285493671894073e-02 -7.6901787519454956e-01</leafValues></_>
        <_>
          <internalNodes>
            0 -1 71 5.7879637461155653e-04</internalNodes>
          <leafValues>
            1.6928324103355408e-01 -5.0993853807449341e-01</leafValues></_></weakClassifiers></_>
    <!-- stage 16 -->
    <_>
      <maxWeakCount>17</maxWeakCount>
      <stageThreshold>-6.4436978101730347e-01</stageThreshold>
      <weakClassifiers>
        <_>
          <internalNodes>
            0 -1 201 -7.5746502261608839e-04</internalNodes>
          <leafValues>
            -3.5265699028968811e-01 4.6746745705604553e-01</leafValues></_>
        <_>
          <internalNodes>
            0 -1 164 -1.6057600732892752e-03</internalNodes>
          <leafValues>
            3.5656696557998657e-01 -3.4456986188888550e-01</leafValues></_>
        <_>
          <internalNodes>
            0 -1 163 -3.8138311356306076e-04</internalNodes>
          <leafValues>
            3.0977880954742432e-01 -3.3675462007522583e-01</leafValues></_>
        <_>
          <internalNodes>
            0 -1 17 -1.4229558408260345e-02</internalNodes>
          <leafValues>
            2.3408126831054688e-01 -4.3166103959083557e-01</leafValues></_>
        <_>
          <internalNodes>
            0 -1 126 -9.7664174973033369e-05</internalNodes>
          <leafValues>
            2.0595020055770874e-01 -4.8867902159690857e-01</leafValues></_>
        <_>
          <internalNodes>
            0 -1 158 1.2294691987335682e-02</internalNodes>
          <leafValues>
            -6.3736647367477417e-01 1.3444945216178894e-01</leafValues></_>
        <_>
          <internalNodes>
            0 -1 10 -2.6957157999277115e-02</internalNodes>
          <leafValues>
            2.3018553853034973e-01 -4.2046171426773071e-01</leafValues></_>
        <_>
          <internalNodes>
            0 -1 119 -1.2727432185783982e-03</internalNodes>
          <leafValues>
            -5.9208101034164429e-01 1.3410048186779022e-01</leafValues></_>
        <_>
          <internalNodes>
            0 -1 93 -1.3911642599850893e-03</internalNodes>
          <leafValues>
            3.2317575812339783e-01 -2.5733286142349243e-01</leafValues></_>
        <_>
          <internalNodes>
            0 -1 30 -2.5691594928503036e-03</internalNodes>
          <leafValues>
            8.2405067980289459e-02 -8.1560003757476807e-01</leafValues></_>
        <_>
          <internalNodes>
            0 -1 110 -2.1807281300425529e-03</internalNodes>
          <leafValues>
            -3.3661907911300659e-01 2.1792849898338318e-01</leafValues></_>
        <_>
          <internalNodes>
            0 -1 190 -8.0745213199406862e-04</internalNodes>
          <leafValues>
            1.7292250692844391e-01 -4.7830766439437866e-01</leafValues></_>
        <_>
          <internalNodes>
            0 -1 98 -1.2550737708806992e-02</internalNodes>
          <leafValues>
            1.7035236954689026e-01 -4.3882864713668823e-01</leafValues></_>
        <_>
          <internalNodes>
            0 -1 216 -9.4875367358326912e-03</internalNodes>
          <leafValues>
            -5.8809602260589600e-01 1.3605132699012756e-01</leafValues></_>
        <_>
          <internalNodes>
            0 -1 118 -3.4736399538815022e-03</internalNodes>
          <leafValues>
            -5.8802860975265503e-01 1.1745056509971619e-01</leafValues></_>
        <_>
          <internalNodes>
            0 -1 117 1.3373396359384060e-03</internalNodes>
          <leafValues>
            1.2576825916767120e-01 -5.7498252391815186e-01</leafValues></_>
        <_>
          <internalNodes>
            0 -1 160 7.3895906098186970e-05</internalNodes>
          <leafValues>
            -7.0611524581909180e-01 7.9627588391304016e-02</leafValues></_></weakClassifiers></_>
    <!-- stage 17 -->
    <_>
      <maxWeakCount>17</maxWeakCount>
      <stageThreshold>-8.6908787488937378e-01</stageThreshold>
      <weakClassifiers>
        <_>
          <internalNodes>
            0 -1 19 -6.8789005279541016e-02</internalNodes>
          <leafValues>
            4.5909526944160461e-01 -4.9700599908828735e-01</leafValues></_>
        <_>
          <internalNodes>
            0 -1 161 -2.9611715581268072e-04</internalNodes>
          <leafValues>
            -3.3480876684188843e-01 2.9866361618041992e-01</leafValues></_>
        <_>
          <internalNodes>
            0 -1 104 -8.3963233919348568e-05</internalNodes>
          <leafValues>
            2.6904526352882385e-01 -4.1288366913795471e-01</leafValues></_>
        <_>
          <internalNodes>
            0 -1 185 1.3189841411076486e-04</internalNodes>
          <leafValues>
            -7.1120470762252808e-01 1.2295195460319519e-01</leafValues></_>
        <_>
          <internalNodes>
            0 -1 184 1.0156685020774603e-03</internalNodes>
          <leafValues>
            1.4279918372631073e-01 -5.9047693014144897e-01</leafValues></_>
        <_>
          <internalNodes>
            0 -1 186 -5.0158098340034485e-02</internalNodes>
          <leafValues>
            -5.8312600851058960e-01 1.4884425699710846e-01</leafValues></_>
        <_>
          <internalNodes>
            0 -1 34 -1.7972511705011129e-03</internalNodes>
          <leafValues>
            2.9154774546623230e-01 -3.7181091308593750e-01</leafValues></_>
        <_>
          <internalNodes>
            0 -1 131 -3.8806081283837557e-04</internalNodes>
          <leafValues>
            3.4201475977897644e-01 -2.8917020559310913e-01</leafValues></_>
        <_>
          <internalNodes>
            0 -1 130 -1.9808043725788593e-03</internalNodes>
          <leafValues>
            9.8261170089244843e-02 -7.6205575466156006e-01</leafValues></_>
        <_>
          <internalNodes>
            0 -1 115 3.2554653007537127e-03</internalNodes>
          <leafValues>
            2.0698013901710510e-01 -4.5301848649978638e-01</leafValues></_>
        <_>
          <internalNodes>
            0 -1 194 2.5472033303231001e-03</internalNodes>
          <leafValues>
            -5.3833132982254028e-01 1.3851010799407959e-01</leafValues></_>
        <_>
          <internalNodes>
            0 -1 65 -6.1442987062036991e-03</internalNodes>
          <leafValues>
            2.1146856248378754e-01 -3.7489011883735657e-01</leafValues></_>
        <_>
          <internalNodes>
            0 -1 112 -1.8449111375957727e-03</internalNodes>
          <leafValues>
            3.0780759453773499e-01 -3.4038841724395752e-01</leafValues></_>
        <_>
          <internalNodes>
            0 -1 137 -4.8004478216171265e-02</internalNodes>
          <leafValues>
            -6.6885387897491455e-01 1.4199347794055939e-01</leafValues></_>
        <_>
          <internalNodes>
            0 -1 84 -1.4773143455386162e-02</internalNodes>
          <leafValues>
            -7.8949481248855591e-01 8.8243298232555389e-02</leafValues></_>
        <_>
          <internalNodes>
            0 -1 39 5.9374244883656502e-03</internalNodes>
          <leafValues>
            -1.5925619006156921e-01 6.2847000360488892e-01</leafValues></_>
        <_>
          <internalNodes>
            0 -1 133 -5.5105774663388729e-04</internalNodes>
          <leafValues>
            -6.5313708782196045e-01 1.4990572631359100e-01</leafValues></_></weakClassifiers></_>
    <!-- stage 18 -->
    <_>
      <maxWeakCount>14</maxWeakCount>
      <stageThreshold>-8.3131664991378784e-01</stageThreshold>
      <weakClassifiers>
        <_>
          <internalNodes>
            0 -1 23 -5.4507870227098465e-03</internalNodes>
          <leafValues>
            5.5580610036849976e-01 -3.1034481525421143e-01</leafValues></_>
        <_>
          <internalNodes>
            0 -1 195 2.8598383069038391e-03</internalNodes>
          <leafValues>
            -4.3381911516189575e-01 3.2248178124427795e-01</leafValues></_>
        <_>
          <internalNodes>
            0 -1 78 -8.8841961696743965e-03</internalNodes>
          <leafValues>
            3.7185359001159668e-01 -3.5821905732154846e-01</leafValues></_>
        <_>
          <internalNodes>
            0 -1 127 -4.9067363142967224e-02</internalNodes>
          <leafValues>
            9.1210508346557617e-01 -1.2837287783622742e-01</leafValues></_>
        <_>
          <internalNodes>
            0 -1 111 -1.0512623703107238e-04</internalNodes>
          <leafValues>
            2.4052436649799347e-01 -5.1618403196334839e-01</leafValues></_>
        <_>
          <internalNodes>
            0 -1 75 -3.5904506221413612e-03</internalNodes>
          <leafValues>
            9.3357563018798828e-01 -1.2008707970380783e-01</leafValues></_>
        <_>
          <internalNodes>
            0 -1 69 -1.4307655394077301e-02</internalNodes>
          <leafValues>
            2.0352037250995636e-01 -6.5365833044052124e-01</leafValues></_>
        <_>
          <internalNodes>
            0 -1 50 -4.7853396972641349e-04</internalNodes>
          <leafValues>
            1.5223480761051178e-01 -6.9726282358169556e-01</leafValues></_>
        <_>
          <internalNodes>
            0 -1 132 4.4395336881279945e-03</internalNodes>
          <leafValues>
            1.8027025461196899e-01 -6.0037416219711304e-01</leafValues></_>
        <_>
          <internalNodes>
            0 -1 32 -5.1782801747322083e-03</internalNodes>
          <leafValues>
            2.7770414948463440e-01 -3.5912451148033142e-01</leafValues></_>
        <_>
          <internalNodes>
            0 -1 106 -4.6284995973110199e-02</internalNodes>
          <leafValues>
            2.2030746936798096e-01 -4.5101302862167358e-01</leafValues></_>
        <_>
          <internalNodes>
            0 -1 145 -8.3047064254060388e-04</internalNodes>
          <leafValues>
            6.1089932918548584e-01 -1.8767578899860382e-01</leafValues></_>
        <_>
          <internalNodes>
            0 -1 76 2.1426645107567310e-03</internalNodes>
          <leafValues>
            -2.2632636129856110e-01 4.5047506690025330e-01</leafValues></_>
        <_>
          <internalNodes>
            0 -1 173 -1.2353253550827503e-03</internalNodes>
          <leafValues>
            -6.4378762245178223e-01 2.1081534028053284e-01</leafValues></_></weakClassifiers></_>
    <!-- stage 19 -->
    <_>
      <maxWeakCount>10</maxWeakCount>
      <stageThreshold>-1.0646324157714844e+00</stageThreshold>
      <weakClassifiers>
        <_>
          <internalNodes>
            0 -1 141 -6.5696081146597862e-03</internalNodes>
          <leafValues>
            -3.6585366725921631e-01 6.3201910257339478e-01</leafValues></_>
        <_>
          <internalNodes>
            0 -1 100 -9.7921118140220642e-03</internalNodes>
          <leafValues>
            7.4663436412811279e-01 -2.5846779346466064e-01</leafValues></_>
        <_>
          <internalNodes>
            0 -1 215 8.9264812413603067e-04</internalNodes>
          <leafValues>
            4.6289694309234619e-01 -4.6576052904129028e-01</leafValues></_>
        <_>
          <internalNodes>
            0 -1 61 -1.2195749208331108e-02</internalNodes>
          <leafValues>
            3.1918001174926758e-01 -5.8104556798934937e-01</leafValues></_>
        <_>
          <internalNodes>
            0 -1 138 -1.1389782652258873e-02</internalNodes>
          <leafValues>
            8.5308325290679932e-01 -3.0824723839759827e-01</leafValues></_>
        <_>
          <internalNodes>
            0 -1 120 -7.6250596903264523e-03</internalNodes>
          <leafValues>
            -3.0639031529426575e-01 5.5835264921188354e-01</leafValues></_>
        <_>
          <internalNodes>
            0 -1 13 1.0019963607192039e-02</internalNodes>
          <leafValues>
            -2.9332426190376282e-01 6.7732489109039307e-01</leafValues></_>
        <_>
          <internalNodes>
            0 -1 54 -2.0320047624409199e-03</internalNodes>
          <leafValues>
            7.5845611095428467e-01 -2.3378573358058929e-01</leafValues></_>
        <_>
          <internalNodes>
            0 -1 135 -4.7350977547466755e-04</internalNodes>
          <leafValues>
            4.1314569115638733e-01 -5.0628584623336792e-01</leafValues></_>
        <_>
          <internalNodes>
            0 -1 177 -4.3572951108217239e-03</internalNodes>
          <leafValues>
            -7.4510174989700317e-01 3.4920078516006470e-01</leafValues></_></weakClassifiers></_></stages>
  <features>
    <_>
      <rects>
        <_>
          0 0 12 19 -1.</_>
        <_>
          6 0 6 19 2.</_></rects>
      <tilted>0</tilted></_>
    <_>
      <rects>
        <_>
          0 0 18 19 -1.</_>
        <_>
          6 0 6 19 3.</_></rects>
      <tilted>0</tilted></_>
    <_>
      <rects>
        <_>
          0 0 20 18 -1.</_>
        <_>
          0 6 20 6 3.</_></rects>
      <tilted>0</tilted></_>
    <_>
      <rects>
        <_>
          0 1 9 11 -1.</_>
        <_>
          3 1 3 11 3.</_></rects>
      <tilted>0</tilted></_>
    <_>
      <rects>
        <_>
          0 1 8 17 -1.</_>
        <_>
          4 1 4 17 2.</_></rects>
      <tilted>0</tilted></_>
    <_>
      <rects>
        <_>
          0 2 12 15 -1.</_>
        <_>
          4 2 4 15 3.</_></rects>
      <tilted>0</tilted></_>
    <_>
      <rects>
        <_>
          0 2 18 1 -1.</_>
        <_>
          6 2 6 1 3.</_></rects>
      <tilted>0</tilted></_>
    <_>
      <rects>
        <_>
          0 2 12 5 -1.</_>
        <_>
          6 2 6 5 2.</_></rects>
      <tilted>0</tilted></_>
    <_>
      <rects>
        <_>
          0 2 18 16 -1.</_>
        <_>
          6 2 6 16 3.</_></rects>
      <tilted>0</tilted></_>
    <_>
      <rects>
        <_>
          0 2 18 17 -1.</_>
        <_>
          6 2 6 17 3.</_></rects>
      <tilted>0</tilted></_>
    <_>
      <rects>
        <_>
          0 2 19 4 -1.</_>
        <_>
          0 4 19 2 2.</_></rects>
      <tilted>0</tilted></_>
    <_>
      <rects>
        <_>
          0 3 6 5 -1.</_>
        <_>
          3 3 3 5 2.</_></rects>
      <tilted>0</tilted></_>
    <_>
      <rects>
        <_>
          0 4 6 8 -1.</_>
        <_>
          2 4 2 8 3.</_></rects>
      <tilted>0</tilted></_>
    <_>
      <rects>
        <_>
          0 5 4 10 -1.</_>
        <_>
          0 5 2 5 2.</_>
        <_>
          2 10 2 5 2.</_></rects>
      <tilted>0</tilted></_>
    <_>
      <rects>
        <_>
          0 5 15 14 -1.</_>
        <_>
          5 5 5 14 3.</_></rects>
      <tilted>0</tilted></_>
    <_>
      <rects>
        <_>
          0 5 20 15 -1.</_>
        <_>
          0 10 20 5 3.</_></rects>
      <tilted>0</tilted></_>
    <_>
      <rects>
        <_>
          0 6 6 1 -1.</_>
        <_>
          3 6 3 1 2.</_></rects>
      <tilted>0</tilted></_>
    <_>
      <rects>
        <_>
          0 7 9 3 -1.</_>
        <_>
          3 7 3 3 3.</_></rects>
      <tilted>0</tilted></_>
    <_>
      <rects>
        <_>
          1 0 14 6 -1.</_>
        <_>
          1 3 14 3 2.</_></rects>
      <tilted>0</tilted></_>
    <_>
      <rects>
        <_>
          1 0 16 8 -1.</_>
        <_>
          1 4 16 4 2.</_></rects>
      <tilted>0</tilted></_>
    <_>
      <rects>
        <_>
          1 1 18 18 -1.</_>
        <_>
          7 1 6 18 3.</_></rects>
      <tilted>0</tilted></_>
    <_>
      <rects>
        <_>
          1 2 4 13 -1.</_>
        <_>
          3 2 2 13 2.</_></rects>
      <tilted>0</tilted></_>
    <_>
      <rects>
        <_>
          1 2 9 14 -1.</_>
        <_>
          4 2 3 14 3.</_></rects>
      <tilted>0</tilted></_>
    <_>
      <rects>
        <_>
          1 2 12 1 -1.</_>
        <_>
          5 2 4 1 3.</_></rects>
      <tilted>0</tilted></_>
    <_>
      <rects>
        <_>
          1 2 18 18 -1.</_>
        <_>
          7 2 6 18 3.</_></rects>
      <tilted>0</tilted></_>
    <_>
      <rects>
        <_>
          1 3 9 4 -1.</_>
        <_>
          4 3 3 4 3.</_></rects>
      <tilted>0</tilted></_>
    <_>
      <rects>
        <_>
          1 3 9 6 -1.</_>
        <_>
          4 3 3 6 3.</_></rects>
      <tilted>0</tilted></_>
    <_>
      <rects>
        <_>
          1 3 6 13 -1.</_>
        <_>
          4 3 3 13 2.</_></rects>
      <tilted>0</tilted></_>
    <_>
      <rects>
        <_>
          1 3 6 15 -1.</_>
        <_>
          1 8 6 5 3.</_></rects>
      <tilted>0</tilted></_>
    <_>
      <rects>
        <_>
          1 4 6 10 -1.</_>
        <_>
          3 4 2 10 3.</_></rects>
      <tilted>0</tilted></_>
    <_>
      <rects>
        <_>
          1 4 10 1 -1.</_>
        <_>
          6 4 5 1 2.</_></rects>
      <tilted>0</tilted></_>
    <_>
      <rects>
        <_>
          1 4 18 16 -1.</_>
        <_>
          7 4 6 16 3.</_></rects>
      <tilted>0</tilted></_>
    <_>
      <rects>
        <_>
          1 7 2 5 -1.</_>
        <_>
          2 7 1 5 2.</_></rects>
      <tilted>0</tilted></_>
    <_>
      <rects>
        <_>
          1 8 14 2 -1.</_>
        <_>
          1 9 14 1 2.</_></rects>
      <tilted>0</tilted></_>
    <_>
      <rects>
        <_>
          1 9 2 2 -1.</_>
        <_>
          2 9 1 2 2.</_></rects>
      <tilted>0</tilted></_>
    <_>
      <rects>
        <_>
          1 10 15 9 -1.</_>
        <_>
          6 10 5 9 3.</_></rects>
      <tilted>0</tilted></_>
    <_>
      <rects>
        <_>
          1 11 12 1 -1.</_>
        <_>
          5 11 4 1 3.</_></rects>
      <tilted>0</tilted></_>
    <_>
      <rects>
        <_>
          1 11 18 8 -1.</_>
        <_>
          7 11 6 8 3.</_></rects>
      <tilted>0</tilted></_>
    <_>
      <rects>
        <_>
          1 15 14 4 -1.</_>
        <_>
          1 17 14 2 2.</_></rects>
      <tilted>0</tilted></_>
    <_>
      <rects>
        <_>
          2 0 2 12 -1.</_>
        <_>
          2 4 2 4 3.</_></rects>
      <tilted>0</tilted></_>
    <_>
      <rects>
        <_>
          2 0 8 5 -1.</_>
        <_>
          6 0 4 5 2.</_></rects>
      <tilted>0</tilted></_>
    <_>
      <rects>
        <_>
          2 0 5 18 -1.</_>
        <_>
          2 6 5 6 3.</_></rects>
      <tilted>0</tilted></_>
    <_>
      <rects>
        <_>
          2 0 18 20 -1.</_>
        <_>
          8 0 6 20 3.</_></rects>
      <tilted>0</tilted></_>
    <_>
      <rects>
        <_>
          2 0 14 18 -1.</_>
        <_>
          2 6 14 6 3.</_></rects>
      <tilted>0</tilted></_>
    <_>
      <rects>
        <_>
          2 0 16 15 -1.</_>
        <_>
          2 5 16 5 3.</_></rects>
      <tilted>0</tilted></_>
    <_>
      <rects>
        <_>
          2 1 18 18 -1.</_>
        <_>
          8 1 6 18 3.</_></rects>
      <tilted>0</tilted></_>
    <_>
      <rects>
        <_>
          2 2 3 15 -1.</_>
        <_>
          3 2 1 15 3.</_></rects>
      <tilted>0</tilted></_>
    <_>
      <rects>
        <_>
          2 2 8 1 -1.</_>
        <_>
          6 2 4 1 2.</_></rects>
      <tilted>0</tilted></_>
    <_>
      <rects>
        <_>
          2 2 8 18 -1.</_>
        <_>
          2 8 8 6 3.</_></rects>
      <tilted>0</tilted></_>
    <_>
      <rects>
        <_>
          2 3 6 4 -1.</_>
        <_>
          4 3 2 4 3.</_></rects>
      <tilted>0</tilted></_>
    <_>
      <rects>
        <_>
          2 3 8 2 -1.</_>
        <_>
          2 4 8 1 2.</_></rects>
      <tilted>0</tilted></_>
    <_>
      <rects>
        <_>
          2 3 9 6 -1.</_>
        <_>
          2 6 9 3 2.</_></rects>
      <tilted>0</tilted></_>
    <_>
      <rects>
        <_>
          2 4 6 6 -1.</_>
        <_>
          2 7 6 3 2.</_></rects>
      <tilted>0</tilted></_>
    <_>
      <rects>
        <_>
          2 7 6 2 -1.</_>
        <_>
          4 7 2 2 3.</_></rects>
      <tilted>0</tilted></_>
    <_>
      <rects>
        <_>
          2 9 1 6 -1.</_>
        <_>
          2 11 1 2 3.</_></rects>
      <tilted>0</tilted></_>
    <_>
      <rects>
        <_>
          2 9 6 9 -1.</_>
        <_>
          5 9 3 9 2.</_></rects>
      <tilted>0</tilted></_>
    <_>
      <rects>
        <_>
          2 13 8 6 -1.</_>
        <_>
          6 13 4 6 2.</_></rects>
      <tilted>0</tilted></_>
    <_>
      <rects>
        <_>
          2 13 18 5 -1.</_>
        <_>
          8 13 6 5 3.</_></rects>
      <tilted>0</tilted></_>
    <_>
      <rects>
        <_>
          2 14 18 4 -1.</_>
        <_>
          8 14 6 4 3.</_></rects>
      <tilted>0</tilted></_>
    <_>
      <rects>
        <_>
          2 16 4 4 -1.</_>
        <_>
          2 16 2 2 2.</_>
        <_>
          4 18 2 2 2.</_></rects>
      <tilted>0</tilted></_>
    <_>
      <rects>
        <_>
          3 0 2 6 -1.</_>
        <_>
          4 0 1 6 2.</_></rects>
      <tilted>0</tilted></_>
    <_>
      <rects>
        <_>
          3 0 4 9 -1.</_>
        <_>
          5 0 2 9 2.</_></rects>
      <tilted>0</tilted></_>
    <_>
      <rects>
        <_>
          3 0 4 18 -1.</_>
        <_>
          3 6 4 6 3.</_></rects>
      <tilted>0</tilted></_>
    <_>
      <rects>
        <_>
          3 0 12 12 -1.</_>
        <_>
          3 4 12 4 3.</_></rects>
      <tilted>0</tilted></_>
    <_>
      <rects>
        <_>
          3 0 15 8 -1.</_>
        <_>
          3 4 15 4 2.</_></rects>
      <tilted>0</tilted></_>
    <_>
      <rects>
        <_>
          3 1 2 7 -1.</_>
        <_>
          4 1 1 7 2.</_></rects>
      <tilted>0</tilted></_>
    <_>
      <rects>
        <_>
          3 1 13 18 -1.</_>
        <_>
          3 7 13 6 3.</_></rects>
      <tilted>0</tilted></_>
    <_>
      <rects>
        <_>
          3 2 3 13 -1.</_>
        <_>
          4 2 1 13 3.</_></rects>
      <tilted>0</tilted></_>
    <_>
      <rects>
        <_>
          3 2 9 7 -1.</_>
        <_>
          6 2 3 7 3.</_></rects>
      <tilted>0</tilted></_>
    <_>
      <rects>
        <_>
          3 6 7 12 -1.</_>
        <_>
          3 10 7 4 3.</_></rects>
      <tilted>0</tilted></_>
    <_>
      <rects>
        <_>
          3 6 12 2 -1.</_>
        <_>
          3 7 12 1 2.</_></rects>
      <tilted>0</tilted></_>
    <_>
      <rects>
        <_>
          3 8 5 3 -1.</_>
        <_>
          3 9 5 1 3.</_></rects>
      <tilted>0</tilted></_>
    <_>
      <rects>
        <_>
          3 8 14 12 -1.</_>
        <_>
          3 14 14 6 2.</_></rects>
      <tilted>0</tilted></_>
    <_>
      <rects>
        <_>
          3 10 10 2 -1.</_>
        <_>
          3 11 10 1 2.</_></rects>
      <tilted>0</tilted></_>
    <_>
      <rects>
        <_>
          3 12 10 2 -1.</_>
        <_>
          3 13 10 1 2.</_></rects>
      <tilted>0</tilted></_>
    <_>
      <rects>
        <_>
          3 14 1 6 -1.</_>
        <_>
          3 16 1 2 3.</_></rects>
      <tilted>0</tilted></_>
    <_>
      <rects>
        <_>
          3 17 6 3 -1.</_>
        <_>
          3 18 6 1 3.</_></rects>
      <tilted>0</tilted></_>
    <_>
      <rects>
        <_>
          4 0 8 9 -1.</_>
        <_>
          4 3 8 3 3.</_></rects>
      <tilted>0</tilted></_>
    <_>
      <rects>
        <_>
          4 0 14 6 -1.</_>
        <_>
          4 2 14 2 3.</_></rects>
      <tilted>0</tilted></_>
    <_>
      <rects>
        <_>
          4 0 14 15 -1.</_>
        <_>
          4 5 14 5 3.</_></rects>
      <tilted>0</tilted></_>
    <_>
      <rects>
        <_>
          4 1 4 9 -1.</_>
        <_>
          4 4 4 3 3.</_></rects>
      <tilted>0</tilted></_>
    <_>
      <rects>
        <_>
          4 1 6 3 -1.</_>
        <_>
          4 2 6 1 3.</_></rects>
      <tilted>0</tilted></_>
    <_>
      <rects>
        <_>
          4 1 12 9 -1.</_>
        <_>
          4 4 12 3 3.</_></rects>
      <tilted>0</tilted></_>
    <_>
      <rects>
        <_>
          4 1 12 12 -1.</_>
        <_>
          4 5 12 4 3.</_></rects>
      <tilted>0</tilted></_>
    <_>
      <rects>
        <_>
          4 2 3 15 -1.</_>
        <_>
          5 2 1 15 3.</_></rects>
      <tilted>0</tilted></_>
    <_>
      <rects>
        <_>
          4 3 5 8 -1.</_>
        <_>
          4 7 5 4 2.</_></rects>
      <tilted>0</tilted></_>
    <_>
      <rects>
        <_>
          4 3 15 17 -1.</_>
        <_>
          9 3 5 17 3.</_></rects>
      <tilted>0</tilted></_>
    <_>
      <rects>
        <_>
          4 4 6 3 -1.</_>
        <_>
          4 5 6 1 3.</_></rects>
      <tilted>0</tilted></_>
    <_>
      <rects>
        <_>
          4 6 9 13 -1.</_>
        <_>
          7 6 3 13 3.</_></rects>
      <tilted>0</tilted></_>
    <_>
      <rects>
        <_>
          4 9 6 9 -1.</_>
        <_>
          4 12 6 3 3.</_></rects>
      <tilted>0</tilted></_>
    <_>
      <rects>
        <_>
          4 9 11 4 -1.</_>
        <_>
          4 11 11 2 2.</_></rects>
      <tilted>0</tilted></_>
    <_>
      <rects>
        <_>
          4 11 8 4 -1.</_>
        <_>
          8 11 4 4 2.</_></rects>
      <tilted>0</tilted></_>
    <_>
      <rects>
        <_>
          4 12 14 8 -1.</_>
        <_>
          4 16 14 4 2.</_></rects>
      <tilted>0</tilted></_>
    <_>
      <rects>
        <_>
          4 13 4 6 -1.</_>
        <_>
          4 13 2 3 2.</_>
        <_>
          6 16 2 3 2.</_></rects>
      <tilted>0</tilted></_>
    <_>
      <rects>
        <_>
          4 13 9 2 -1.</_>
        <_>
          4 14 9 1 2.</_></rects>
      <tilted>0</tilted></_>
    <_>
      <rects>
        <_>
          4 14 9 6 -1.</_>
        <_>
          4 17 9 3 2.</_></rects>
      <tilted>0</tilted></_>
    <_>
      <rects>
        <_>
          4 16 6 2 -1.</_>
        <_>
          4 16 3 1 2.</_>
        <_>
          7 17 3 1 2.</_></rects>
      <tilted>0</tilted></_>
    <_>
      <rects>
        <_>
          5 0 2 9 -1.</_>
        <_>
          5 3 2 3 3.</_></rects>
      <tilted>0</tilted></_>
    <_>
      <rects>
        <_>
          5 0 9 13 -1.</_>
        <_>
          8 0 3 13 3.</_></rects>
      <tilted>0</tilted></_>
    <_>
      <rects>
        <_>
          5 0 6 6 -1.</_>
        <_>
          5 2 6 2 3.</_></rects>
      <tilted>0</tilted></_>
    <_>
      <rects>
        <_>
          5 0 7 2 -1.</_>
        <_>
          5 1 7 1 2.</_></rects>
      <tilted>0</tilted></_>
    <_>
      <rects>
        <_>
          5 0 7 6 -1.</_>
        <_>
          5 2 7 2 3.</_></rects>
      <tilted>0</tilted></_>
    <_>
      <rects>
        <_>
          5 0 10 9 -1.</_>
        <_>
          5 3 10 3 3.</_></rects>
      <tilted>0</tilted></_>
    <_>
      <rects>
        <_>
          5 1 1 9 -1.</_>
        <_>
          5 4 1 3 3.</_></rects>
      <tilted>0</tilted></_>
    <_>
      <rects>
        <_>
          5 1 3 6 -1.</_>
        <_>
          6 1 1 6 3.</_></rects>
      <tilted>0</tilted></_>
    <_>
      <rects>
        <_>
          5 1 4 3 -1.</_>
        <_>
          5 2 4 1 3.</_></rects>
      <tilted>0</tilted></_>
    <_>
      <rects>
        <_>
          5 1 13 12 -1.</_>
        <_>
          5 5 13 4 3.</_></rects>
      <tilted>0</tilted></_>
    <_>
      <rects>
        <_>
          5 5 2 15 -1.</_>
        <_>
          5 10 2 5 3.</_></rects>
      <tilted>0</tilted></_>
    <_>
      <rects>
        <_>
          5 7 4 6 -1.</_>
        <_>
          5 10 4 3 2.</_></rects>
      <tilted>0</tilted></_>
    <_>
      <rects>
        <_>
          5 8 5 6 -1.</_>
        <_>
          5 11 5 3 2.</_></rects>
      <tilted>0</tilted></_>
    <_>
      <rects>
        <_>
          5 8 13 2 -1.</_>
        <_>
          5 9 13 1 2.</_></rects>
      <tilted>0</tilted></_>
    <_>
      <rects>
        <_>
          5 9 8 1 -1.</_>
        <_>
          9 9 4 1 2.</_></rects>
      <tilted>0</tilted></_>
    <_>
      <rects>
        <_>
          5 12 3 6 -1.</_>
        <_>
          5 14 3 2 3.</_></rects>
      <tilted>0</tilted></_>
    <_>
      <rects>
        <_>
          5 16 14 4 -1.</_>
        <_>
          5 18 14 2 2.</_></rects>
      <tilted>0</tilted></_>
    <_>
      <rects>
        <_>
          6 0 4 3 -1.</_>
        <_>
          6 1 4 1 3.</_></rects>
      <tilted>0</tilted></_>
    <_>
      <rects>
        <_>
          6 1 8 12 -1.</_>
        <_>
          6 1 4 6 2.</_>
        <_>
          10 7 4 6 2.</_></rects>
      <tilted>0</tilted></_>
    <_>
      <rects>
        <_>
          6 2 1 8 -1.</_>
        <_>
          6 6 1 4 2.</_></rects>
      <tilted>0</tilted></_>
    <_>
      <rects>
        <_>
          6 2 3 6 -1.</_>
        <_>
          7 2 1 6 3.</_></rects>
      <tilted>0</tilted></_>
    <_>
      <rects>
        <_>
          6 2 3 8 -1.</_>
        <_>
          7 2 1 8 3.</_></rects>
      <tilted>0</tilted></_>
    <_>
      <rects>
        <_>
          6 3 1 16 -1.</_>
        <_>
          6 11 1 8 2.</_></rects>
      <tilted>0</tilted></_>
    <_>
      <rects>
        <_>
          6 5 6 12 -1.</_>
        <_>
          8 5 2 12 3.</_></rects>
      <tilted>0</tilted></_>
    <_>
      <rects>
        <_>
          6 6 4 10 -1.</_>
        <_>
          8 6 2 10 2.</_></rects>
      <tilted>0</tilted></_>
    <_>
      <rects>
        <_>
          6 7 6 8 -1.</_>
        <_>
          9 7 3 8 2.</_></rects>
      <tilted>0</tilted></_>
    <_>
      <rects>
        <_>
          6 7 6 10 -1.</_>
        <_>
          9 7 3 10 2.</_></rects>
      <tilted>0</tilted></_>
    <_>
      <rects>
        <_>
          6 10 5 4 -1.</_>
        <_>
          6 12 5 2 2.</_></rects>
      <tilted>0</tilted></_>
    <_>
      <rects>
        <_>
          6 11 5 4 -1.</_>
        <_>
          6 13 5 2 2.</_></rects>
      <tilted>0</tilted></_>
    <_>
      <rects>
        <_>
          6 13 8 1 -1.</_>
        <_>
          10 13 4 1 2.</_></rects>
      <tilted>0</tilted></_>
    <_>
      <rects>
        <_>
          6 14 11 6 -1.</_>
        <_>
          6 16 11 2 3.</_></rects>
      <tilted>0</tilted></_>
    <_>
      <rects>
        <_>
          7 0 1 6 -1.</_>
        <_>
          7 3 1 3 2.</_></rects>
      <tilted>0</tilted></_>
    <_>
      <rects>
        <_>
          7 0 1 12 -1.</_>
        <_>
          7 4 1 4 3.</_></rects>
      <tilted>0</tilted></_>
    <_>
      <rects>
        <_>
          7 0 1 15 -1.</_>
        <_>
          7 5 1 5 3.</_></rects>
      <tilted>0</tilted></_>
    <_>
      <rects>
        <_>
          7 0 2 3 -1.</_>
        <_>
          7 1 2 1 3.</_></rects>
      <tilted>0</tilted></_>
    <_>
      <rects>
        <_>
          7 2 6 14 -1.</_>
        <_>
          7 2 3 7 2.</_>
        <_>
          10 9 3 7 2.</_></rects>
      <tilted>0</tilted></_>
    <_>
      <rects>
        <_>
          7 4 2 2 -1.</_>
        <_>
          7 4 1 1 2.</_>
        <_>
          8 5 1 1 2.</_></rects>
      <tilted>0</tilted></_>
    <_>
      <rects>
        <_>
          7 6 2 14 -1.</_>
        <_>
          7 13 2 7 2.</_></rects>
      <tilted>0</tilted></_>
    <_>
      <rects>
        <_>
          7 6 8 2 -1.</_>
        <_>
          7 7 8 1 2.</_></rects>
      <tilted>0</tilted></_>
    <_>
      <rects>
        <_>
          7 7 4 10 -1.</_>
        <_>
          7 7 2 5 2.</_>
        <_>
          9 12 2 5 2.</_></rects>
      <tilted>0</tilted></_>
    <_>
      <rects>
        <_>
          7 7 12 10 -1.</_>
        <_>
          7 12 12 5 2.</_></rects>
      <tilted>0</tilted></_>
    <_>
      <rects>
        <_>
          7 9 13 6 -1.</_>
        <_>
          7 11 13 2 3.</_></rects>
      <tilted>0</tilted></_>
    <_>
      <rects>
        <_>
          7 13 2 3 -1.</_>
        <_>
          8 13 1 3 2.</_></rects>
      <tilted>0</tilted></_>
    <_>
      <rects>
        <_>
          7 13 4 1 -1.</_>
        <_>
          9 13 2 1 2.</_></rects>
      <tilted>0</tilted></_>
    <_>
      <rects>
        <_>
          7 13 6 4 -1.</_>
        <_>
          9 13 2 4 3.</_></rects>
      <tilted>0</tilted></_>
    <_>
      <rects>
        <_>
          7 14 1 6 -1.</_>
        <_>
          7 17 1 3 2.</_></rects>
      <tilted>0</tilted></_>
    <_>
      <rects>
        <_>
          7 16 1 3 -1.</_>
        <_>
          7 17 1 1 3.</_></rects>
      <tilted>0</tilted></_>
    <_>
      <rects>
        <_>
          7 16 6 4 -1.</_>
        <_>
          7 18 6 2 2.</_></rects>
      <tilted>0</tilted></_>
    <_>
      <rects>
        <_>
          7 17 1 3 -1.</_>
        <_>
          7 18 1 1 3.</_></rects>
      <tilted>0</tilted></_>
    <_>
      <rects>
        <_>
          8 0 1 14 -1.</_>
        <_>
          8 7 1 7 2.</_></rects>
      <tilted>0</tilted></_>
    <_>
      <rects>
        <_>
          8 0 3 15 -1.</_>
        <_>
          8 5 3 5 3.</_></rects>
      <tilted>0</tilted></_>
    <_>
      <rects>
        <_>
          8 3 2 14 -1.</_>
        <_>
          8 3 1 7 2.</_>
        <_>
          9 10 1 7 2.</_></rects>
      <tilted>0</tilted></_>
    <_>
      <rects>
        <_>
          8 4 1 3 -1.</_>
        <_>
          8 5 1 1 3.</_></rects>
      <tilted>0</tilted></_>
    <_>
      <rects>
        <_>
          8 5 6 1 -1.</_>
        <_>
          11 5 3 1 2.</_></rects>
      <tilted>0</tilted></_>
    <_>
      <rects>
        <_>
          8 6 12 8 -1.</_>
        <_>
          12 6 4 8 3.</_></rects>
      <tilted>0</tilted></_>
    <_>
      <rects>
        <_>
          8 8 2 1 -1.</_>
        <_>
          9 8 1 1 2.</_></rects>
      <tilted>0</tilted></_>
    <_>
      <rects>
        <_>
          8 8 1 3 -1.</_>
        <_>
          8 9 1 1 3.</_></rects>
      <tilted>0</tilted></_>
    <_>
      <rects>
        <_>
          8 8 1 12 -1.</_>
        <_>
          8 12 1 4 3.</_></rects>
      <tilted>0</tilted></_>
    <_>
      <rects>
        <_>
          8 8 12 1 -1.</_>
        <_>
          14 8 6 1 2.</_></rects>
      <tilted>0</tilted></_>
    <_>
      <rects>
        <_>
          8 9 6 4 -1.</_>
        <_>
          8 11 6 2 2.</_></rects>
      <tilted>0</tilted></_>
    <_>
      <rects>
        <_>
          8 10 12 4 -1.</_>
        <_>
          12 10 4 4 3.</_></rects>
      <tilted>0</tilted></_>
    <_>
      <rects>
        <_>
          8 10 12 6 -1.</_>
        <_>
          14 10 6 6 2.</_></rects>
      <tilted>0</tilted></_>
    <_>
      <rects>
        <_>
          8 13 2 6 -1.</_>
        <_>
          8 15 2 2 3.</_></rects>
      <tilted>0</tilted></_>
    <_>
      <rects>
        <_>
          8 15 1 4 -1.</_>
        <_>
          8 17 1 2 2.</_></rects>
      <tilted>0</tilted></_>
    <_>
      <rects>
        <_>
          8 15 10 2 -1.</_>
        <_>
          8 15 5 1 2.</_>
        <_>
          13 16 5 1 2.</_></rects>
      <tilted>0</tilted></_>
    <_>
      <rects>
        <_>
          8 15 12 1 -1.</_>
        <_>
          14 15 6 1 2.</_></rects>
      <tilted>0</tilted></_>
    <_>
      <rects>
        <_>
          8 16 2 3 -1.</_>
        <_>
          8 17 2 1 3.</_></rects>
      <tilted>0</tilted></_>
    <_>
      <rects>
        <_>
          9 0 1 6 -1.</_>
        <_>
          9 2 1 2 3.</_></rects>
      <tilted>0</tilted></_>
    <_>
      <rects>
        <_>
          9 0 5 15 -1.</_>
        <_>
          9 5 5 5 3.</_></rects>
      <tilted>0</tilted></_>
    <_>
      <rects>
        <_>
          9 3 11 9 -1.</_>
        <_>
          9 6 11 3 3.</_></rects>
      <tilted>0</tilted></_>
    <_>
      <rects>
        <_>
          9 4 2 2 -1.</_>
        <_>
          9 4 1 1 2.</_>
        <_>
          10 5 1 1 2.</_></rects>
      <tilted>0</tilted></_>
    <_>
      <rects>
        <_>
          9 4 5 9 -1.</_>
        <_>
          9 7 5 3 3.</_></rects>
      <tilted>0</tilted></_>
    <_>
      <rects>
        <_>
          9 5 2 4 -1.</_>
        <_>
          9 7 2 2 2.</_></rects>
      <tilted>0</tilted></_>
    <_>
      <rects>
        <_>
          9 5 10 3 -1.</_>
        <_>
          14 5 5 3 2.</_></rects>
      <tilted>0</tilted></_>
    <_>
      <rects>
        <_>
          9 6 11 12 -1.</_>
        <_>
          9 12 11 6 2.</_></rects>
      <tilted>0</tilted></_>
    <_>
      <rects>
        <_>
          9 7 2 3 -1.</_>
        <_>
          10 7 1 3 2.</_></rects>
      <tilted>0</tilted></_>
    <_>
      <rects>
        <_>
          9 8 1 6 -1.</_>
        <_>
          9 10 1 2 3.</_></rects>
      <tilted>0</tilted></_>
    <_>
      <rects>
        <_>
          9 8 2 6 -1.</_>
        <_>
          9 11 2 3 2.</_></rects>
      <tilted>0</tilted></_>
    <_>
      <rects>
        <_>
          9 9 2 6 -1.</_>
        <_>
          9 11 2 2 3.</_></rects>
      <tilted>0</tilted></_>
    <_>
      <rects>
        <_>
          9 9 6 6 -1.</_>
        <_>
          9 12 6 3 2.</_></rects>
      <tilted>0</tilted></_>
    <_>
      <rects>
        <_>
          9 10 8 4 -1.</_>
        <_>
          9 12 8 2 2.</_></rects>
      <tilted>0</tilted></_>
    <_>
      <rects>
        <_>
          9 17 7 2 -1.</_>
        <_>
          9 18 7 1 2.</_></rects>
      <tilted>0</tilted></_>
    <_>
      <rects>
        <_>
          10 0 1 12 -1.</_>
        <_>
          10 6 1 6 2.</_></rects>
      <tilted>0</tilted></_>
    <_>
      <rects>
        <_>
          10 0 1 16 -1.</_>
        <_>
          10 8 1 8 2.</_></rects>
      <tilted>0</tilted></_>
    <_>
      <rects>
        <_>
          10 1 4 8 -1.</_>
        <_>
          12 1 2 8 2.</_></rects>
      <tilted>0</tilted></_>
    <_>
      <rects>
        <_>
          10 3 2 6 -1.</_>
        <_>
          10 3 1 3 2.</_>
        <_>
          11 6 1 3 2.</_></rects>
      <tilted>0</tilted></_>
    <_>
      <rects>
        <_>
          10 3 9 13 -1.</_>
        <_>
          13 3 3 13 3.</_></rects>
      <tilted>0</tilted></_>
    <_>
      <rects>
        <_>
          10 5 3 10 -1.</_>
        <_>
          10 10 3 5 2.</_></rects>
      <tilted>0</tilted></_>
    <_>
      <rects>
        <_>
          10 6 1 14 -1.</_>
        <_>
          10 13 1 7 2.</_></rects>
      <tilted>0</tilted></_>
    <_>
      <rects>
        <_>
          10 6 10 12 -1.</_>
        <_>
          10 12 10 6 2.</_></rects>
      <tilted>0</tilted></_>
    <_>
      <rects>
        <_>
          10 8 1 12 -1.</_>
        <_>
          10 12 1 4 3.</_></rects>
      <tilted>0</tilted></_>
    <_>
      <rects>
        <_>
          10 8 4 7 -1.</_>
        <_>
          12 8 2 7 2.</_></rects>
      <tilted>0</tilted></_>
    <_>
      <rects>
        <_>
          10 9 2 2 -1.</_>
        <_>
          11 9 1 2 2.</_></rects>
      <tilted>0</tilted></_>
    <_>
      <rects>
        <_>
          10 11 9 1 -1.</_>
        <_>
          13 11 3 1 3.</_></rects>
      <tilted>0</tilted></_>
    <_>
      <rects>
        <_>
          10 11 4 9 -1.</_>
        <_>
          10 14 4 3 3.</_></rects>
      <tilted>0</tilted></_>
    <_>
      <rects>
        <_>
          10 12 9 1 -1.</_>
        <_>
          13 12 3 1 3.</_></rects>
      <tilted>0</tilted></_>
    <_>
      <rects>
        <_>
          10 13 2 2 -1.</_>
        <_>
          10 14 2 1 2.</_></rects>
      <tilted>0</tilted></_>
    <_>
      <rects>
        <_>
          10 13 10 1 -1.</_>
        <_>
          15 13 5 1 2.</_></rects>
      <tilted>0</tilted></_>
    <_>
      <rects>
        <_>
          10 17 10 1 -1.</_>
        <_>
          15 17 5 1 2.</_></rects>
      <tilted>0</tilted></_>
    <_>
      <rects>
        <_>
          11 0 6 4 -1.</_>
        <_>
          11 0 3 2 2.</_>
        <_>
          14 2 3 2 2.</_></rects>
      <tilted>0</tilted></_>
    <_>
      <rects>
        <_>
          11 0 8 6 -1.</_>
        <_>
          11 0 4 3 2.</_>
        <_>
          15 3 4 3 2.</_></rects>
      <tilted>0</tilted></_>
    <_>
      <rects>
        <_>
          11 5 1 10 -1.</_>
        <_>
          11 10 1 5 2.</_></rects>
      <tilted>0</tilted></_>
    <_>
      <rects>
        <_>
          11 5 4 4 -1.</_>
        <_>
          11 7 4 2 2.</_></rects>
      <tilted>0</tilted></_>
    <_>
      <rects>
        <_>
          11 8 1 12 -1.</_>
        <_>
          11 14 1 6 2.</_></rects>
      <tilted>0</tilted></_>
    <_>
      <rects>
        <_>
          11 9 1 6 -1.</_>
        <_>
          11 12 1 3 2.</_></rects>
      <tilted>0</tilted></_>
    <_>
      <rects>
        <_>
          11 12 1 8 -1.</_>
        <_>
          11 16 1 4 2.</_></rects>
      <tilted>0</tilted></_>
    <_>
      <rects>
        <_>
          11 14 3 3 -1.</_>
        <_>
          11 15 3 1 3.</_></rects>
      <tilted>0</tilted></_>
    <_>
      <rects>
        <_>
          12 3 8 15 -1.</_>
        <_>
          16 3 4 15 2.</_></rects>
      <tilted>0</tilted></_>
    <_>
      <rects>
        <_>
          12 8 3 4 -1.</_>
        <_>
          12 10 3 2 2.</_></rects>
      <tilted>0</tilted></_>
    <_>
      <rects>
        <_>
          12 8 8 2 -1.</_>
        <_>
          16 8 4 2 2.</_></rects>
      <tilted>0</tilted></_>
    <_>
      <rects>
        <_>
          13 7 6 8 -1.</_>
        <_>
          15 7 2 8 3.</_></rects>
      <tilted>0</tilted></_>
    <_>
      <rects>
        <_>
          14 5 2 6 -1.</_>
        <_>
          14 8 2 3 2.</_></rects>
      <tilted>0</tilted></_>
    <_>
      <rects>
        <_>
          14 5 2 15 -1.</_>
        <_>
          14 10 2 5 3.</_></rects>
      <tilted>0</tilted></_>
    <_>
      <rects>
        <_>
          14 7 1 4 -1.</_>
        <_>
          14 9 1 2 2.</_></rects>
      <tilted>0</tilted></_>
    <_>
      <rects>
        <_>
          14 11 3 6 -1.</_>
        <_>
          14 14 3 3 2.</_></rects>
      <tilted>0</tilted></_>
    <_>
      <rects>
        <_>
          14 15 3 4 -1.</_>
        <_>
          14 17 3 2 2.</_></rects>
      <tilted>0</tilted></_>
    <_>
      <rects>
        <_>
          14 15 4 2 -1.</_>
        <_>
          14 16 4 1 2.</_></rects>
      <tilted>0</tilted></_>
    <_>
      <rects>
        <_>
          15 6 3 14 -1.</_>
        <_>
          15 13 3 7 2.</_></rects>
      <tilted>0</tilted></_>
    <_>
      <rects>
        <_>
          18 3 2 2 -1.</_>
        <_>
          19 3 1 2 2.</_></rects>
      <tilted>0</tilted></_>
    <_>
      <rects>
        <_>
          19 10 1 10 -1.</_>
        <_>
          19 15 1 5 2.</_></rects>
      <tilted>0</tilted></_>
    <_>
      <rects>
        <_>
          19 13 1 4 -1.</_>
        <_>
          19 15 1 2 2.</_></rects>
      <tilted>0</tilted></_></features></cascade>
</opencv_storage>
